svm_type c_svc
kernel_type precomputed
nr_class 2
total_sv 16
rho 0.99941647801016631
label 1 -1
probA 117.55368658526042
probB 120.88640083290217
nr_sv 1 15
SV
0.03125 0:5 
-0.0010563456093176254 0:2 
-0.0080079084282802301 0:3 
-0.0067728412172294149 0:8 
-0.00065278807849956043 0:10 
-0.0014915280417521061 0:20 
-0.0008287271888301603 0:23 
-0.0012284946654014528 0:25 
-0.00080467217613636047 0:33 
-0.0019052077923142493 0:35 
-0.00078848731587149589 0:37 
-0.0012019389528977037 0:40 
-0.00082385215301563166 0:45 
-0.0032194372753356669 0:46 
-0.0013508090269730999 0:47 
-0.0011169620781452435 0:48 
