svm_type c_svc
kernel_type precomputed
nr_class 2
total_sv 50
rho -0.97685189587804755
label 1 -1
probA -17.236207311572944
probB 16.422219193180837
nr_sv 30 20
SV
0.030658408774759175 0:1 
0.03125 0:2 
0.03125 0:3 
0.013628038294463341 0:4 
0.015444604897002154 0:7 
0.016584960962714661 0:9 
0.013575524444171524 0:10 
0.03125 0:11 
0.01499602555158098 0:13 
0.024653704654316488 0:14 
0.011128158274788118 0:16 
0.027153139735053202 0:17 
0.013098562846679707 0:24 
0.020327134117730117 0:25 
0.020288012524231153 0:26 
0.018441555672915395 0:27 
0.020190144803648315 0:28 
0.015223027228260737 0:29 
0.01672463964211034 0:31 
0.021908545749492268 0:32 
0.025670112293917909 0:33 
0.023192581219808491 0:34 
0.011071204771827695 0:36 
0.017791029391815785 0:37 
0.019661511179734234 0:38 
0.023167391009326986 0:40 
0.022035111272613744 0:43 
0.028372864748337667 0:46 
0.025055152897147982 0:47 
0.021208853041551831 0:49 
-0.03125 0:5 
-0.03125 0:6 
-0.03125 0:8 
-0.03125 0:12 
-0.03125 0:15 
-0.03125 0:18 
-0.03125 0:19 
-0.03125 0:20 
-0.03125 0:21 
-0.03125 0:22 
-0.03125 0:23 
-0.03125 0:30 
-0.03125 0:35 
-0.03125 0:39 
-0.03125 0:41 
-0.03125 0:42 
-0.03125 0:44 
-0.03125 0:45 
-0.03125 0:48 
-0.03125 0:50 
