svm_type c_svc
kernel_type precomputed
nr_class 2
total_sv 50
rho 0.9930897750499833
label 1 -1
probA 213.92739180086954
probB 213.86773263109822
nr_sv 10 40
SV
0.03125 0:9 
0.03125 0:14 
0.03125 0:28 
0.03125 0:29 
0.03125 0:33 
0.03125 0:37 
0.03125 0:38 
0.03125 0:46 
0.03125 0:47 
0.03125 0:49 
-0.0046736850320714925 0:1 
-0.0074411198198357231 0:2 
-0.00064440300241068449 0:3 
-0.010013925915996206 0:4 
-0.0054119241750202902 0:5 
-0.007473201707634396 0:6 
-0.0098798134626144046 0:7 
-0.002559726776526096 0:8 
-0.012625605810130501 0:10 
-0.0051375932788905749 0:11 
-0.0058215982404633193 0:12 
-0.010318386122413413 0:13 
-0.0039260516599553159 0:15 
-0.012464508043393442 0:16 
-0.0056044394070734792 0:17 
-0.0088018735502501215 0:18 
-0.0048136669460523539 0:19 
-0.0061978817675182899 0:20 
-0.0053149502579030849 0:21 
-0.0077423252820656326 0:22 
-0.0065150165407056818 0:23 
-0.0098538159774349595 0:24 
-0.0063875494213578533 0:25 
-0.0073737620213266894 0:26 
-0.0072419909572722097 0:27 
-0.0055259345738164012 0:30 
-0.0091538856123850893 0:31 
-0.0066503366688800847 0:32 
-0.0083578022094696561 0:34 
-0.0078110790579507096 0:35 
-0.015530969863533476 0:36 
-0.0090955938085125511 0:39 
-0.010379126768764367 0:40 
-0.0061770897802770021 0:41 
-0.0065903739684074697 0:42 
-0.024695724976464838 0:43 
-0.0045750171945362125 0:44 
-0.0085354059917900332 0:45 
-0.0064607634530860604 0:48 
-0.0087220808958098431 0:50 
